11
0.227147 -0.077738 -0.491392 -0.228013 -0.353522 -0.350583 -500 
-0.62963 -0.852286 -1.24215 -0.26 -0.287025 -0.276949 -400 
-0.887043 -1.05066 -1.35835 -0.088607 -0.152542 -0.144215 -300 
-0.955017 -0.87397 -1.0802 -0.0930227 -0.098227 -0.108008 -200 
-0.479233 -0.458281 -0.348597 -0.0783586 -0.043312 0.0372247 -100 
0.100977 0.247311 0.484163 -0.15859 -0.0124488 0.0431776 0 
1.06574 1.19144 1.40086 -0.155779 0.0966329 0.139616 100 
1.86869 1.88595 2.09008 -0.0420558 0.192147 0.205527 200 
2.30872 2.21951 2.2574 0.0877198 0.338936 0.278524 300 
2.04333 1.95585 2.0108 0.241107 0.427632 0.426871 400 
1.71096 1.56967 1.55727 0.461864 0.568088 0.602862 500 
0.579513 0.523345 0.479989 -0.0285214 0.0614872 0.0776407 
0.00317187 0.0033136 0.00383567 0.000546119 0.000878346 0.000870926 
-182.704 -157.938 -125.138 52.2256 -70.0034 -89.1473 
-0.00856777 -0.00774548 -0.00750758 -0.00031987 0.00066497 0.00073634 -450 
-0.00257413 -0.00198374 -0.001162 0.00171393 0.00134483 0.00132734 -350 
-0.00067974 0.0017669 0.0027815 -4.4157e-005 0.00054315 0.00036207 -250 
0.00475784 0.00415689 0.00731603 0.000146641 0.00054915 0.00145233 -150 
0.0058021 0.00705592 0.0083276 -0.000802314 0.000308632 5.9529e-005 -50 
0.00964763 0.00944129 0.00916697 2.811e-005 0.00109082 0.000964384 50 
0.0080295 0.0069451 0.0068922 0.00113723 0.000955141 0.00065911 150 
0.0044003 0.0033356 0.0016732 0.00129776 0.00146789 0.00072997 250 
-0.0026539 -0.0026366 -0.002466 0.00153387 0.00088696 0.00148347 350 
-0.0033237 -0.0038618 -0.0045353 0.00220757 0.00140456 0.00175991 450 
0.00728651 0.00737496 0.0081915 0.000195709 0.00077289 0.000669785 
5.19388e-006 2.96828e-006 7.05994e-007 1.93929e-006 6.10611e-007 6.46651e-007 
-7.03358e-008 -6.94249e-008 -7.44587e-008 5.98992e-009 1.80267e-009 3.4383e-009 
36.922 21.3776 4.74084 -161.88 -169.363 -94.0365 
1.69168 1.67682 1.84947 0.425187 0.584987 0.602134 
0.859948 0.83534 0.815945 0.192318 0.26464 0.244994 
-0.323932 -0.268314 -0.189058 -0.111217 -0.273807 -0.283915 
-1.31343 -1.28628 -1.4116 -0.0773963 -0.141946 -0.13487 
